{
    "learner": {
        "attributes": {
            "niter": "99"
        },
        "feature_names": [],
        "feature_types": [],
        "gradient_booster": {
            "model": {
                "gbtree_model_param": {
                    "num_parallel_tree": "1",
                    "num_trees": "300",
                    "size_leaf_vector": "0"
                },
                "tree_info": [
                    0,
                    1,
                    2,
                    0,
                    1,
                    2,
                    0,
                    1,
                    2,
                    0,
                    1,
                    2,
                    0,
                    1,
                    2,
                    0,
                    1,
                    2,
                    0,
                    1,
                    2,
                    0,
                    1,
                    2,
                    0,
                    1,
                    2,
                    0,
                    1,
                    2,
                    0,
                    1,
                    2,
                    0,
                    1,
                    2,
                    0,
                    1,
                    2,
                    0,
                    1,
                    2,
                    0,
                    1,
                    2,
                    0,
                    1,
                    2,
                    0,
                    1,
                    2,
                    0,
                    1,
                    2,
                    0,
                    1,
                    2,
                    0,
                    1,
                    2,
                    0,
                    1,
                    2,
                    0,
                    1,
                    2,
                    0,
                    1,
                    2,
                    0,
                    1,
                    2,
                    0,
                    1,
                    2,
                    0,
                    1,
                    2,
                    0,
                    1,
                    2,
                    0,
                    1,
                    2,
                    0,
                    1,
                    2,
                    0,
                    1,
                    2,
                    0,
                    1,
                    2,
                    0,
                    1,
                    2,
                    0,
                    1,
                    2,
                    0,
                    1,
                    2,
                    0,
                    1,
                    2,
                    0,
                    1,
                    2,
                    0,
                    1,
                    2,
                    0,
                    1,
                    2,
                    0,
                    1,
                    2,
                    0,
                    1,
                    2,
                    0,
                    1,
                    2,
                    0,
                    1,
                    2,
                    0,
                    1,
                    2,
                    0,
                    1,
                    2,
                    0,
                    1,
                    2,
                    0,
                    1,
                    2,
                    0,
                    1,
                    2,
                    0,
                    1,
                    2,
                    0,
                    1,
                    2,
                    0,
                    1,
                    2,
                    0,
                    1,
                    2,
                    0,
                    1,
                    2,
                    0,
                    1,
                    2,
                    0,
                    1,
                    2,
                    0,
                    1,
                    2,
                    0,
                    1,
                    2,
                    0,
                    1,
                    2,
                    0,
                    1,
                    2,
                    0,
                    1,
                    2,
                    0,
                    1,
                    2,
                    0,
                    1,
                    2,
                    0,
                    1,
                    2,
                    0,
                    1,
                    2,
                    0,
                    1,
                    2,
                    0,
                    1,
                    2,
                    0,
                    1,
                    2,
                    0,
                    1,
                    2,
                    0,
                    1,
                    2,
                    0,
                    1,
                    2,
                    0,
                    1,
                    2,
                    0,
                    1,
                    2,
                    0,
                    1,
                    2,
                    0,
                    1,
                    2,
                    0,
                    1,
                    2,
                    0,
                    1,
                    2,
                    0,
                    1,
                    2,
                    0,
                    1,
                    2,
                    0,
                    1,
                    2,
                    0,
                    1,
                    2,
                    0,
                    1,
                    2,
                    0,
                    1,
                    2,
                    0,
                    1,
                    2,
                    0,
                    1,
                    2,
                    0,
                    1,
                    2,
                    0,
                    1,
                    2,
                    0,
                    1,
                    2,
                    0,
                    1,
                    2,
                    0,
                    1,
                    2,
                    0,
                    1,
                    2,
                    0,
                    1,
                    2,
                    0,
                    1,
                    2,
                    0,
                    1,
                    2,
                    0,
                    1,
                    2,
                    0,
                    1,
                    2,
                    0,
                    1,
                    2,
                    0,
                    1,
                    2,
                    0,
                    1,
                    2,
                    0,
                    1,
                    2,
                    0,
                    1,
                    2,
                    0,
                    1,
                    2
                ],
                "trees": [
                    {
                        "base_weights": [
                            9.448815E-2,
                            1.4093959E0,
                            -7.219918E-1
                        ],
                        "categories": [],
                        "categories_nodes": [],
                        "categories_segments": [],
                        "categories_sizes": [],
                        "default_left": [
                            1,
                            0,
                            0
                        ],
                        "id": 0,
                        "left_children": [
                            1,
                            -1,
                            -1
                        ],
                        "loss_changes": [
                            4.6466457E1,
                            0E0,
                            0E0
                        ],
                        "parents": [
                            2147483647,
                            0,
                            0
                        ],
                        "right_children": [
                            2,
                            -1,
                            -1
                        ],
                        "split_conditions": [
                            2.45E0,
                            1.409396E-1,
                            -7.219918E-2
                        ],
                        "split_indices": [
                            2,
                            0,
                            0
                        ],
                        "split_type": [
                            0,
                            0,
                            0
                        ],
                        "sum_hessian": [
                            4.1333332E1,
                            1.5555554E1,
                            2.5777777E1
                        ],
                        "tree_param": {
                            "num_deleted": "0",
                            "num_feature": "4",
                            "num_nodes": "3",
                            "size_leaf_vector": "0"
                        }
                    },
                    {
                        "base_weights": [
                            -1.2868637E-1,
                            2.1161821E-1,
                            -7.021277E-1,
                            -6.992482E-1,
                            1.2307693E0,
                            1.3663366E0,
                            2.3999998E-1
                        ],
                        "categories": [],
                        "categories_nodes": [],
                        "categories_segments": [],
                        "categories_sizes": [],
                        "default_left": [
                            1,
                            1,
                            0,
                            0,
                            1,
                            0,
                            0
                        ],
                        "id": 1,
                        "left_children": [
                            1,
                            3,
                            -1,
                            -1,
                            5,
                            -1,
                            -1
                        ],
                        "loss_changes": [
                            8.236247E0,
                            2.5718702E1,
                            0E0,
                            0E0,
                            1.4181862E0,
                            0E0,
                            0E0
                        ],
                        "parents": [
                            2147483647,
                            0,
                            0,
                            1,
                            1,
                            4,
                            4
                        ],
                        "right_children": [
                            2,
                            4,
                            -1,
                            -1,
                            6,
                            -1,
                            -1
                        ],
                        "split_conditions": [
                            1.75E0,
                            2.35E0,
                            -7.0212774E-2,
                            -6.9924824E-2,
                            1.55E0,
                            1.3663366E-1,
                            2.3999998E-2
                        ],
                        "split_indices": [
                            3,
                            2,
                            0,
                            0,
                            3,
                            0,
                            0
                        ],
                        "split_type": [
                            0,
                            0,
                            0,
                            0,
                            0,
                            0,
                            0
                        ],
                        "sum_hessian": [
                            4.0444443E1,
                            2.5777777E1,
                            1.4666666E1,
                            1.3777777E1,
                            1.1999999E1,
                            1.0222221E1,
                            1.7777777E0
                        ],
                        "tree_param": {
                            "num_deleted": "0",
                            "num_feature": "4",
                            "num_nodes": "7",
                            "size_leaf_vector": "0"
                        }
                    },
                    {
                        "base_weights": [
                            1.2469434E-1,
                            -6.846474E-1,
                            1.220339E0,
                            -7.1830994E-1,
                            -3.2432437E-1,
                            2.7272725E-1,
                            1.3529412E0,
                            -2.5544848E-8,
                            -4.8000002E-1,
                            4.285714E-1,
                            -2.5544848E-8
                        ],
                        "categories": [],
                        "categories_nodes": [],
                        "categories_segments": [],
                        "categories_sizes": [],
                        "default_left": [
                            1,
                            1,
                            1,
                            0,
                            1,
                            1,
                            0,
                            0,
                            0,
                            0,
                            0
                        ],
                        "id": 2,
                        "left_children": [
                            1,
                            3,
                            5,
                            -1,
                            7,
                            9,
                            -1,
                            -1,
                            -1,
                            -1,
                            -1
                        ],
                        "loss_changes": [
                            4.1133404E1,
                            9.1833115E-2,
                            2.1022396E0,
                            0E0,
                            2.0756754E-1,
                            1.5584418E-1,
                            0E0,
                            0E0,
                            0E0,
                            0E0,
                            0E0
                        ],
                        "parents": [
                            2147483647,
                            0,
                            0,
                            1,
                            1,
                            2,
                            2,
                            4,
                            4,
                            5,
                            5
                        ],
                        "right_children": [
                            2,
                            4,
                            6,
                            -1,
                            8,
                            10,
                            -1,
                            -1,
                            -1,
                            -1,
                            -1
                        ],
                        "split_conditions": [
                            4.75E0,
                            1.45E0,
                            4.95E0,
                            -7.1830995E-2,
                            5.8E0,
                            6.2E0,
                            1.3529412E-1,
                            -2.5544848E-9,
                            -4.8000004E-2,
                            4.285714E-2,
                            -2.5544848E-9
                        ],
                        "split_indices": [
                            2,
                            3,
                            2,
                            0,
                            0,
                            0,
                            0,
                            0,
                            0,
                            0,
                            0
                        ],
                        "split_type": [
                            0,
                            0,
                            0,
                            0,
                            0,
                            0,
                            0,
                            0,
                            0,
                            0,
                            0
                        ],
                        "sum_hessian": [
                            4.4444443E1,
                            2.5777777E1,
                            1.8666666E1,
                            2.2666666E1,
                            3.111111E0,
                            2.6666665E0,
                            1.5999999E1,
                            1.3333333E0,
                            1.7777777E0,
                            1.3333333E0,
                            1.3333333E0
                        ],
                        "tree_param": {
                            "num_deleted": "0",
                            "num_feature": "4",
                            "num_nodes": "11",
                            "size_leaf_vector": "0"
                        }
                    },
                    {
                        "base_weights": [
                            -3.0571109E-2,
                            1.2200062E0,
                            -6.9778955E-1
                        ],
                        "categories": [],
                        "categories_nodes": [],
                        "categories_segments": [],
                        "categories_sizes": [],
                        "default_left": [
                            1,
                            0,
                            0
                        ],
                        "id": 3,
                        "left_children": [
                            1,
                            -1,
                            -1
                        ],
                        "loss_changes": [
                            3.52142E1,
                            0E0,
                            0E0
                        ],
                        "parents": [
                            2147483647,
                            0,
                            0
                        ],
                        "right_children": [
                            2,
                            -1,
                            -1
                        ],
                        "split_conditions": [
                            2.6E0,
                            1.2200063E-1,
                            -6.977896E-2
                        ],
                        "split_indices": [
                            2,
                            0,
                            0
                        ],
                        "split_type": [
                            0,
                            0,
                            0
                        ],
                        "sum_hessian": [
                            4.018235E1,
                            1.3691561E1,
                            2.6490788E1
                        ],
                        "tree_param": {
                            "num_deleted": "0",
                            "num_feature": "4",
                            "num_nodes": "3",
                            "size_leaf_vector": "0"
                        }
                    },
                    {
                        "base_weights": [
                            -1.15997344E-1,
                            -6.7730826E-1,
                            1.8619388E-1,
                            1.1016761E0,
                            -6.2526816E-1,
                            1.2150066E0,
                            5.0913165E-3,
                            -1.22290365E-1,
                            -6.7906284E-1
                        ],
                        "categories": [],
                        "categories_nodes": [],
                        "categories_segments": [],
                        "categories_sizes": [],
                        "default_left": [
                            1,
                            0,
                            1,
                            1,
                            1,
                            0,
                            0,
                            0,
                            0
                        ],
                        "id": 4,
                        "left_children": [
                            1,
                            -1,
                            3,
                            5,
                            7,
                            -1,
                            -1,
                            -1,
                            -1
                        ],
                        "loss_changes": [
                            7.547787E0,
                            0E0,
                            2.2400341E1,
                            1.7454834E0,
                            3.5342836E-1,
                            0E0,
                            0E0,
                            0E0,
                            0E0
                        ],
                        "parents": [
                            2147483647,
                            0,
                            0,
                            2,
                            2,
                            3,
                            3,
                            4,
                            4
                        ],
                        "right_children": [
                            2,
                            -1,
                            4,
                            6,
                            8,
                            -1,
                            -1,
                            -1,
                            -1
                        ],
                        "split_conditions": [
                            2.45E0,
                            -6.773083E-2,
                            4.8500004E0,
                            1.6500001E0,
                            4.95E0,
                            1.2150066E-1,
                            5.0913164E-4,
                            -1.2229037E-2,
                            -6.790628E-2
                        ],
                        "split_indices": [
                            2,
                            0,
                            2,
                            3,
                            2,
                            0,
                            0,
                            0,
                            0
                        ],
                        "split_type": [
                            0,
                            0,
                            0,
                            0,
                            0,
                            0,
                            0,
                            0,
                            0
                        ],
                        "sum_hessian": [
                            4.2753895E1,
                            1.45277405E1,
                            2.8226154E1,
                            1.3094944E1,
                            1.513121E1,
                            1.177049E1,
                            1.3244541E0,
                            1.7782192E0,
                            1.3352991E1
                        ],
                        "tree_param": {
                            "num_deleted": "0",
                            "num_feature": "4",
                            "num_nodes": "9",
                            "size_leaf_vector": "0"
                        }
                    },
                    {
                        "base_weights": [
                            3.796298E-2,
                            -6.5931666E-1,
                            1.0897721E0,
                            -6.935346E-1,
                            -1.9450326E-1,
                            2.4169978E-1,
                            1.231146E0,
                            4.0942755E-1,
                            -2.6898384E-2
                        ],
                        "categories": [],
                        "categories_nodes": [],
                        "categories_segments": [],
                        "categories_sizes": [],
                        "default_left": [
                            1,
                            1,
                            1,
                            0,
                            0,
                            1,
                            0,
                            0,
                            0
                        ],
                        "id": 5,
                        "left_children": [
                            1,
                            3,
                            5,
                            -1,
                            -1,
                            7,
                            -1,
                            -1,
                            -1
                        ],
                        "loss_changes": [
                            3.1973883E1,
                            2.8261852E-1,
                            1.784565E0,
                            0E0,
                            0E0,
                            1.7885637E-1,
                            0E0,
                            0E0,
                            0E0
                        ],
                        "parents": [
                            2147483647,
                            0,
                            0,
                            1,
                            1,
                            2,
                            2,
                            5,
                            5
                        ],
                        "right_children": [
                            2,
                            4,
                            6,
                            -1,
                            -1,
                            8,
                            -1,
                            -1,
                            -1
                        ],
                        "split_conditions": [
                            4.75E0,
                            1.45E0,
                            1.75E0,
                            -6.935346E-2,
                            -1.9450327E-2,
                            6.5E0,
                            1.231146E-1,
                            4.0942755E-2,
                            -2.6898384E-3
                        ],
                        "split_indices": [
                            2,
                            3,
                            3,
                            0,
                            0,
                            0,
                            0,
                            0,
                            0
                        ],
                        "split_type": [
                            0,
                            0,
                            0,
                            0,
                            0,
                            0,
                            0,
                            0,
                            0
                        ],
                        "sum_hessian": [
                            4.1616795E1,
                            2.5250528E1,
                            1.6366264E1,
                            2.3060802E1,
                            2.1897266E0,
                            2.725601E0,
                            1.3640664E1,
                            1.3550925E0,
                            1.3705083E0
                        ],
                        "tree_param": {
                            "num_deleted": "0",
                            "num_feature": "4",
                            "num_nodes": "9",
                            "size_leaf_vector": "0"
                        }
                    },
                    {
                        "base_weights": [
                            5.0378844E-2,
                            1.0986155E0,
                            -6.714298E-1
                        ],
                        "categories": [],
                        "categories_nodes": [],
                        "categories_segments": [],
                        "categories_sizes": [],
                        "default_left": [
                            1,
                            0,
                            0
                        ],
                        "id": 6,
                        "left_children": [
                            1,
                            -1,
                            -1
                        ],
                        "loss_changes": [
                            3.0957249E1,
                            0E0,
                            0E0
                        ],
                        "parents": [
                            2147483647,
                            0,
                            0
                        ],
                        "right_children": [
                            2,
                            -1,
                            -1
                        ],
                        "split_conditions": [
                            2.6E0,
                            1.0986155E-1,
                            -6.7142986E-2
                        ],
                        "split_indices": [
                            2,
                            0,
                            0
                        ],
                        "split_type": [
                            0,
                            0,
                            0
                        ],
                        "sum_hessian": [
                            3.8939934E1,
                            1.5666478E1,
                            2.3273457E1
                        ],
                        "tree_param": {
                            "num_deleted": "0",
                            "num_feature": "4",
                            "num_nodes": "3",
                            "size_leaf_vector": "0"
                        }
                    },
                    {
                        "base_weights": [
                            -7.0659004E-2,
                            -6.511102E-1,
                            2.007296E-1,
                            1.0510567E0,
                            -5.013381E-1,
                            1.389946E-1,
                            -6.5414965E-1
                        ],
                        "categories": [],
                        "categories_nodes": [],
                        "categories_segments": [],
                        "categories_sizes": [],
                        "default_left": [
                            1,
                            0,
                            1,
                            0,
                            1,
                            0,
                            0
                        ],
                        "id": 7,
                        "left_children": [
                            1,
                            -1,
                            3,
                            -1,
                            5,
                            -1,
                            -1
                        ],
                        "loss_changes": [
                            6.9787536E0,
                            0E0,
                            1.8667345E1,
                            0E0,
                            1.7858233E0,
                            0E0,
                            0E0
                        ],
                        "parents": [
                            2147483647,
                            0,
                            0,
                            2,
                            2,
                            4,
                            4
                        ],
                        "right_children": [
                            2,
                            -1,
                            4,
                            -1,
                            6,
                            -1,
                            -1
                        ],
                        "split_conditions": [
                            2.45E0,
                            -6.511102E-2,
                            4.8500004E0,
                            1.05105676E-1,
                            1.75E0,
                            1.389946E-2,
                            -6.5414965E-2
                        ],
                        "split_indices": [
                            2,
                            0,
                            2,
                            0,
                            3,
                            0,
                            0
                        ],
                        "split_type": [
                            0,
                            0,
                            0,
                            0,
                            0,
                            0,
                            0
                        ],
                        "sum_hessian": [
                            4.2472042E1,
                            1.308545E1,
                            2.9386593E1,
                            1.3065226E1,
                            1.6321367E1,
                            3.161985E0,
                            1.3159383E1
                        ],
                        "tree_param": {
                            "num_deleted": "0",
                            "num_feature": "4",
                            "num_nodes": "7",
                            "size_leaf_vector": "0"
                        }
                    },
                    {
                        "base_weights": [
                            9.373504E-2,
                            -6.323034E-1,
                            1.0323901E0,
                            -2.2509378E-1,
                            -6.6933316E-1,
                            3.3820662E-1,
                            1.0708562E0,
                            -3.9072284E-1,
                            3.7750892E-2
                        ],
                        "categories": [],
                        "categories_nodes": [],
                        "categories_segments": [],
                        "categories_sizes": [],
                        "default_left": [
                            1,
                            1,
                            1,
                            1,
                            0,
                            0,
                            0,
                            0,
                            0
                        ],
                        "id": 8,
                        "left_children": [
                            1,
                            3,
                            5,
                            7,
                            -1,
                            -1,
                            -1,
                            -1,
                            -1
                        ],
                        "loss_changes": [
                            2.8900894E1,
                            2.1111107E-1,
                            1.3069725E-1,
                            1.6740766E-1,
                            0E0,
                            0E0,
                            0E0,
                            0E0,
                            0E0
                        ],
                        "parents": [
                            2147483647,
                            0,
                            0,
                            1,
                            1,
                            2,
                            2,
                            3,
                            3
                        ],
                        "right_children": [
                            2,
                            4,
                            6,
                            8,
                            -1,
                            -1,
                            -1,
                            -1,
                            -1
                        ],
                        "split_conditions": [
                            4.75E0,
                            2.55E0,
                            4.8500004E0,
                            2.45E0,
                            -6.693332E-2,
                            3.3820663E-2,
                            1.0708562E-1,
                            -3.9072286E-2,
                            3.7750893E-3
                        ],
                        "split_indices": [
                            2,
                            1,
                            2,
                            1,
                            0,
                            0,
                            0,
                            0,
                            0
                        ],
                        "split_type": [
                            0,
                            0,
                            0,
                            0,
                            0,
                            0,
                            0,
                            0,
                            0
                        ],
                        "sum_hessian": [
                            4.0449924E1,
                            2.2992146E1,
                            1.7457777E1,
                            2.5065696E0,
                            2.0485577E1,
                            1.4307041E0,
                            1.6027073E1,
                            1.2391897E0,
                            1.2673798E0
                        ],
                        "tree_param": {
                            "num_deleted": "0",
                            "num_feature": "4",
                            "num_nodes": "9",
                            "size_leaf_vector": "0"
                        }
                    },
                    {
                        "base_weights": [
                            6.683491E-3,
                            1.0002977E0,
                            -6.5359575E-1
                        ],
                        "categories": [],
                        "categories_nodes": [],
                        "categories_segments": [],
                        "categories_sizes": [],
                        "default_left": [
                            1,
                            0,
                            0
                        ],
                        "id": 9,
                        "left_children": [
                            1,
                            -1,
                            -1
                        ],
                        "loss_changes": [
                            2.8672672E1,
                            0E0,
                            0E0
                        ],
                        "parents": [
                            2147483647,
                            0,
                            0
                        ],
                        "right_children": [
                            2,
                            -1,
                            -1
                        ],
                        "split_conditions": [
                            2.45E0,
                            1.0002977E-1,
                            -6.535958E-2
                        ],
                        "split_indices": [
                            2,
                            0,
                            0
                        ],
                        "split_type": [
                            0,
                            0,
                            0
                        ],
                        "sum_hessian": [
                            4.1707623E1,
                            1.644523E1,
                            2.5262392E1
                        ],
                        "tree_param": {
                            "num_deleted": "0",
                            "num_feature": "4",
                            "num_nodes": "3",
                            "size_leaf_vector": "0"
                        }
                    },
                    {
                        "base_weights": [
                            -4.7963656E-2,
                            -6.2824005E-1,
                            2.2776939E-1,
                            8.4003276E-1,
                            -6.3196546E-1,
                            9.7791857E-1,
                            -4.2605478E-1
                        ],
                        "categories": [],
                        "categories_nodes": [],
                        "categories_segments": [],
                        "categories_sizes": [],
                        "default_left": [
                            1,
                            0,
                            1,
                            1,
                            0,
                            0,
                            0
                        ],
                        "id": 10,
                        "left_children": [
                            1,
                            -1,
                            3,
                            5,
                            -1,
                            -1,
                            -1
                        ],
                        "loss_changes": [
                            6.505962E0,
                            0E0,
                            1.5107389E1,
                            3.3151207E0,
                            0E0,
                            0E0,
                            0E0
                        ],
                        "parents": [
                            2147483647,
                            0,
                            0,
                            2,
                            2,
                            3,
                            3
                        ],
                        "right_children": [
                            2,
                            -1,
                            4,
                            6,
                            -1,
                            -1,
                            -1
                        ],
                        "split_conditions": [
                            2.45E0,
                            -6.2824E-2,
                            1.75E0,
                            5.05E0,
                            -6.319655E-2,
                            9.779186E-2,
                            -4.260548E-2
                        ],
                        "split_indices": [
                            2,
                            0,
                            3,
                            2,
                            0,
                            0,
                            0
                        ],
                        "split_type": [
                            0,
                            0,
                            0,
                            0,
                            0,
                            0,
                            0
                        ],
                        "sum_hessian": [
                            3.8767586E1,
                            1.2075798E1,
                            2.6691786E1,
                            1.5602981E1,
                            1.1088805E1,
                            1.42758465E1,
                            1.3271339E0
                        ],
                        "tree_param": {
                            "num_deleted": "0",
                            "num_feature": "4",
                            "num_nodes": "7",
                            "size_leaf_vector": "0"
                        }
                    },
                    {
                        "base_weights": [
                            1.0065121E-1,
                            -5.8564836E-1,
                            9.730774E-1,
                            -6.56605E-1,
                            3.0765533E-1,
                            3.3550146E-1,
                            1.0062501E0
                        ],
                        "categories": [],
                        "categories_nodes": [],
                        "categories_segments": [],
                        "categories_sizes": [],
                        "default_left": [
                            1,
                            1,
                            1,
                            0,
                            0,
                            0,
                            0
                        ],
                        "id": 11,
                        "left_children": [
                            1,
                            3,
                            5,
                            -1,
                            -1,
                            -1,
                            -1
                        ],
                        "loss_changes": [
                            2.5712145E1,
                            1.731327E0,
                            6.138611E-2,
                            0E0,
                            0E0,
                            0E0,
                            0E0
                        ],
                        "parents": [
                            2147483647,
                            0,
                            0,
                            1,
                            1,
                            2,
                            2
                        ],
                        "right_children": [
                            2,
                            4,
                            6,
                            -1,
                            -1,
                            -1,
                            -1
                        ],
                        "split_conditions": [
                            1.75E0,
                            4.95E0,
                            4.8500004E0,
                            -6.56605E-2,
                            3.0765533E-2,
                            3.3550147E-2,
                            1.00625016E-1
                        ],
                        "split_indices": [
                            3,
                            2,
                            2,
                            0,
                            0,
                            0,
                            0
                        ],
                        "split_type": [
                            0,
                            0,
                            0,
                            0,
                            0,
                            0,
                            0
                        ],
                        "sum_hessian": [
                            4.099155E1,
                            2.3127148E1,
                            1.7864403E1,
                            2.167077E1,
                            1.4563767E0,
                            1.4331526E0,
                            1.643125E1
                        ],
                        "tree_param": {
                            "num_deleted": "0",
                            "num_feature": "4",
                            "num_nodes": "7",
                            "size_leaf_vector": "0"
                        }
                    },
                    {
                        "base_weights": [
                            -7.166024E-2,
                            9.1292053E-1,
                            -6.371057E-1
                        ],
                        "categories": [],
                        "categories_nodes": [],
                        "categories_segments": [],
                        "categories_sizes": [],
                        "default_left": [
                            1,
                            0,
                            0
                        ],
                        "id": 12,
                        "left_children": [
                            1,
                            -1,
                            -1
                        ],
                        "loss_changes": [
                            2.3595825E1,
                            0E0,
                            0E0
                        ],
                        "parents": [
                            2147483647,
                            0,
                            0
                        ],
                        "right_children": [
                            2,
                            -1,
                            -1
                        ],
                        "split_conditions": [
                            2.45E0,
                            9.129205E-2,
                            -6.371057E-2
                        ],
                        "split_indices": [
                            2,
                            0,
                            0
                        ],
                        "split_type": [
                            0,
                            0,
                            0
                        ],
                        "sum_hessian": [
                            4.0338413E1,
                            1.4491172E1,
                            2.584724E1
                        ],
                        "tree_param": {
                            "num_deleted": "0",
                            "num_feature": "4",
                            "num_nodes": "3",
                            "size_leaf_vector": "0"
                        }
                    },
                    {
                        "base_weights": [
                            -8.38027E-2,
                            1.7556651E-1,
                            -6.182146E-1,
                            -6.01823E-1,
                            6.833145E-1,
                            9.2516124E-1,
                            -3.0481467E-1
                        ],
                        "categories": [],
                        "categories_nodes": [],
                        "categories_segments": [],
                        "categories_sizes": [],
                        "default_left": [
                            1,
                            1,
                            0,
                            0,
                            1,
                            0,
                            0
                        ],
                        "id": 13,
                        "left_children": [
                            1,
                            3,
                            -1,
                            -1,
                            5,
                            -1,
                            -1
                        ],
                        "loss_changes": [
                            5.39485E0,
                            1.0853574E1,
                            0E0,
                            0E0,
                            4.218232E0,
                            0E0,
                            0E0
                        ],
                        "parents": [
                            2147483647,
                            0,
                            0,
                            1,
                            1,
                            4,
                            4
                        ],
                        "right_children": [
                            2,
                            4,
                            -1,
                            -1,
                            6,
                            -1,
                            -1
                        ],
                        "split_conditions": [
                            5E0,
                            2.45E0,
                            -6.182146E-2,
                            -6.01823E-2,
                            1.6500001E0,
                            9.2516124E-2,
                            -3.0481467E-2
                        ],
                        "split_indices": [
                            2,
                            2,
                            0,
                            0,
                            3,
                            0,
                            0
                        ],
                        "split_type": [
                            0,
                            0,
                            0,
                            0,
                            0,
                            0,
                            0
                        ],
                        "sum_hessian": [
                            3.713803E1,
                            2.5455193E1,
                            1.16828375E1,
                            9.98395E0,
                            1.5471243E1,
                            1.248037E1,
                            2.990873E0
                        ],
                        "tree_param": {
                            "num_deleted": "0",
                            "num_feature": "4",
                            "num_nodes": "7",
                            "size_leaf_vector": "0"
                        }
                    },
                    {
                        "base_weights": [
                            1.0012082E-2,
                            -5.6511694E-1,
                            8.108409E-1,
                            -6.3406265E-1,
                            1.6284645E-1,
                            3.5563627E-1,
                            9.1217196E-1,
                            8.2450604E-1,
                            -4.6903142E-1
                        ],
                        "categories": [],
                        "categories_nodes": [],
                        "categories_segments": [],
                        "categories_sizes": [],
                        "default_left": [
                            1,
                            1,
                            1,
                            0,
                            0,
                            1,
                            0,
                            0,
                            0
                        ],
                        "id": 14,
                        "left_children": [
                            1,
                            3,
                            5,
                            -1,
                            -1,
                            7,
                            -1,
                            -1,
                            -1
                        ],
                        "loss_changes": [
                            1.9035265E1,
                            1.3110418E0,
                            4.7218704E-1,
                            0E0,
                            0E0,
                            2.2362752E0,
                            0E0,
                            0E0,
                            0E0
                        ],
                        "parents": [
                            2147483647,
                            0,
                            0,
                            1,
                            1,
                            2,
                            2,
                            5,
                            5
                        ],
                        "right_children": [
                            2,
                            4,
                            6,
                            -1,
                            -1,
                            8,
                            -1,
                            -1,
                            -1
                        ],
                        "split_conditions": [
                            1.55E0,
                            4.8E0,
                            5.05E0,
                            -6.3406266E-2,
                            1.6284645E-2,
                            2.9E0,
                            9.12172E-2,
                            8.2450606E-2,
                            -4.6903145E-2
                        ],
                        "split_indices": [
                            3,
                            2,
                            2,
                            0,
                            0,
                            1,
                            0,
                            0,
                            0
                        ],
                        "split_type": [
                            0,
                            0,
                            0,
                            0,
                            0,
                            0,
                            0,
                            0,
                            0
                        ],
                        "sum_hessian": [
                            3.9334034E1,
                            2.3064327E1,
                            1.6269709E1,
                            2.1186714E1,
                            1.8776112E0,
                            3.7833953E0,
                            1.2486314E1,
                            2.4121494E0,
                            1.371246E0
                        ],
                        "tree_param": {
                            "num_deleted": "0",
                            "num_feature": "4",
                            "num_nodes": "9",
                            "size_leaf_vector": "0"
                        }
                    },
                    {
                        "base_weights": [
                            1.0232114E-2,
                            8.527842E-1,
                            -6.166655E-1
                        ],
                        "categories": [],
                        "categories_nodes": [],
                        "categories_segments": [],
                        "categories_sizes": [],
                        "default_left": [
                            1,
                            0,
                            0
                        ],
                        "id": 15,
                        "left_children": [
                            1,
                            -1,
                            -1
                        ],
                        "loss_changes": [
                            2.0239481E1,
                            0E0,
                            0E0
                        ],
                        "parents": [
                            2147483647,
                            0,
                            0
                        ],
                        "right_children": [
                            2,
                            -1,
                            -1
                        ],
                        "split_conditions": [
                            2.45E0,
                            8.527842E-2,
                            -6.166655E-2
                        ],
                        "split_indices": [
                            2,
                            0,
                            0
                        ],
                        "split_type": [
                            0,
                            0,
                            0
                        ],
                        "sum_hessian": [
                            3.632266E1,
                            1.5342275E1,
                            2.0980385E1
                        ],
                        "tree_param": {
                            "num_deleted": "0",
                            "num_feature": "4",
                            "num_nodes": "3",
                            "size_leaf_vector": "0"
                        }
                    },
                    {
                        "base_weights": [
                            -6.3083224E-2,
                            -5.9451973E-1,
                            1.9710396E-1,
                            6.6935575E-1,
                            -5.138358E-1,
                            8.6766785E-1,
                            -2.581516E-1,
                            -5.4668188E-2,
                            -5.87331E-1
                        ],
                        "categories": [],
                        "categories_nodes": [],
                        "categories_segments": [],
                        "categories_sizes": [],
                        "default_left": [
                            1,
                            0,
                            1,
                            1,
                            1,
                            0,
                            0,
                            0,
                            0
                        ],
                        "id": 16,
                        "left_children": [
                            1,
                            -1,
                            3,
                            5,
                            7,
                            -1,
                            -1,
                            -1,
                            -1
                        ],
                        "loss_changes": [
                            5.2903953E0,
                            0E0,
                            9.028696E0,
                            3.1627479E0,
                            3.3540058E-1,
                            0E0,
                            0E0,
                            0E0,
                            0E0
                        ],
                        "parents": [
                            2147483647,
                            0,
                            0,
                            2,
                            2,
                            3,
                            3,
                            4,
                            4
                        ],
                        "right_children": [
                            2,
                            -1,
                            4,
                            6,
                            8,
                            -1,
                            -1,
                            -1,
                            -1
                        ],
                        "split_conditions": [
                            2.45E0,
                            -5.9451975E-2,
                            4.95E0,
                            1.6500001E0,
                            5.05E0,
                            8.676679E-2,
                            -2.581516E-2,
                            -5.466819E-3,
                            -5.8733102E-2
                        ],
                        "split_indices": [
                            2,
                            0,
                            2,
                            3,
                            2,
                            0,
                            0,
                            0,
                            0
                        ],
                        "split_type": [
                            0,
                            0,
                            0,
                            0,
                            0,
                            0,
                            0,
                            0,
                            0
                        ],
                        "sum_hessian": [
                            3.6413044E1,
                            1.1545731E1,
                            2.4867313E1,
                            1.4977073E1,
                            9.890241E0,
                            1.2392026E1,
                            2.5850468E0,
                            1.6052345E0,
                            8.285006E0
                        ],
                        "tree_param": {
                            "num_deleted": "0",
                            "num_feature": "4",
                            "num_nodes": "9",
                            "size_leaf_vector": "0"
                        }
                    },
                    {
                        "base_weights": [
                            4.4712886E-2,
                            -5.779474E-1,
                            7.751783E-1,
                            -6.14611E-1,
                            -1.6933438E-1,
                            1.3828251E-1,
                            8.7532353E-1,
                            7.461508E-2,
                            -3.440254E-1,
                            2.8984424E-1,
                            -7.551266E-2
                        ],
                        "categories": [],
                        "categories_nodes": [],
                        "categories_segments": [],
                        "categories_sizes": [],
                        "default_left": [
                            1,
                            1,
                            1,
                            0,
                            1,
                            1,
                            0,
                            0,
                            0,
                            0,
                            0
                        ],
                        "id": 17,
                        "left_children": [
                            1,
                            3,
                            5,
                            -1,
                            7,
                            9,
                            -1,
                            -1,
                            -1,
                            -1,
                            -1
                        ],
                        "loss_changes": [
                            1.950344E1,
                            2.433343E-1,
                            1.1358452E0,
                            0E0,
                            1.658625E-1,
                            1.4713031E-1,
                            0E0,
                            0E0,
                            0E0,
                            0E0,
                            0E0
                        ],
                        "parents": [
                            2147483647,
                            0,
                            0,
                            1,
                            1,
                            2,
                            2,
                            4,
                            4,
                            5,
                            5
                        ],
                        "right_children": [
                            2,
                            4,
                            6,
                            -1,
                            8,
                            10,
                            -1,
                            -1,
                            -1,
                            -1,
                            -1
                        ],
                        "split_conditions": [
                            4.75E0,
                            1.45E0,
                            4.95E0,
                            -6.1461102E-2,
                            5.8999996E0,
                            6.25E0,
                            8.753236E-2,
                            7.4615083E-3,
                            -3.440254E-2,
                            2.8984426E-2,
                            -7.5512663E-3
                        ],
                        "split_indices": [
                            2,
                            3,
                            2,
                            0,
                            0,
                            0,
                            0,
                            0,
                            0,
                            0,
                            0
                        ],
                        "split_type": [
                            0,
                            0,
                            0,
                            0,
                            0,
                            0,
                            0,
                            0,
                            0,
                            0,
                            0
                        ],
                        "sum_hessian": [
                            4.089555E1,
                            2.2189589E1,
                            1.8705961E1,
                            1.9899893E1,
                            2.2896972E0,
                            2.865159E0,
                            1.5840801E1,
                            1.1944987E0,
                            1.0951985E0,
                            1.4684494E0,
                            1.3967097E0
                        ],
                        "tree_param": {
                            "num_deleted": "0",
                            "num_feature": "4",
                            "num_nodes": "11",
                            "size_leaf_vector": "0"
                        }
                    },
                    {
                        "base_weights": [
                            -6.745622E-2,
                            7.9266596E-1,
                            -6.041305E-1
                        ],
                        "categories": [],
                        "categories_nodes": [],
                        "categories_segments": [],
                        "categories_sizes": [],
                        "default_left": [
                            1,
                            0,
                            0
                        ],
                        "id": 18,
                        "left_children": [
                            1,
                            -1,
                            -1
                        ],
                        "loss_changes": [
                            1.6899387E1,
                            0E0,
                            0E0
                        ],
                        "parents": [
                            2147483647,
                            0,
                            0
                        ],
                        "right_children": [
                            2,
                            -1,
                            -1
                        ],
                        "split_conditions": [
                            2.45E0,
                            7.92666E-2,
                            -6.041305E-2
                        ],
                        "split_indices": [
                            2,
                            0,
                            0
                        ],
                        "split_type": [
                            0,
                            0,
                            0
                        ],
                        "sum_hessian": [
                            3.4572617E1,
                            1.3100149E1,
                            2.1472467E1
                        ],
                        "tree_param": {
                            "num_deleted": "0",
                            "num_feature": "4",
                            "num_nodes": "3",
                            "size_leaf_vector": "0"
                        }
                    },
                    {
                        "base_weights": [
                            -3.1456206E-2,
                            2.1461017E-1,
                            -5.8841485E-1,
                            -5.735488E-1,
                            6.8434E-1,
                            7.7101785E-1,
                            -8.6542696E-2
                        ],
                        "categories": [],
                        "categories_nodes": [],
                        "categories_segments": [],
                        "categories_sizes": [],
                        "default_left": [
                            1,
                            1,
                            0,
                            0,
                            1,
                            0,
                            0
                        ],
                        "id": 19,
                        "left_children": [
                            1,
                            3,
                            -1,
                            -1,
                            5,
                            -1,
                            -1
                        ],
                        "loss_changes": [
                            5.4577737E0,
                            1.0652955E1,
                            0E0,
                            0E0,
                            1.2574978E0,
                            0E0,
                            0E0
                        ],
                        "parents": [
                            2147483647,
                            0,
                            0,
                            1,
                            1,
                            4,
                            4
                        ],
                        "right_children": [
                            2,
                            4,
                            -1,
                            -1,
                            6,
                            -1,
                            -1
                        ],
                        "split_conditions": [
                            1.75E0,
                            2.45E0,
                            -5.8841486E-2,
                            -5.735488E-2,
                            4.95E0,
                            7.710179E-2,
                            -8.654269E-3
                        ],
                        "split_indices": [
                            3,
                            2,
                            0,
                            0,
                            2,
                            0,
                            0
                        ],
                        "split_type": [
                            0,
                            0,
                            0,
                            0,
                            0,
                            0,
                            0
                        ],
                        "sum_hessian": [
                            3.790216E1,
                            2.671434E1,
                            1.11878195E1,
                            9.893326E0,
                            1.6821014E1,
                            1.5120674E1,
                            1.7003396E0
                        ],
                        "tree_param": {
                            "num_deleted": "0",
                            "num_feature": "4",
                            "num_nodes": "7",
                            "size_leaf_vector": "0"
                        }
                    },
                    {
                        "base_weights": [
                            8.3352186E-2,
                            -5.538908E-1,
                            7.5686276E-1,
                            -5.9310824E-1,
                            -2.4720928E-1,
                            2.2051755E-1,
                            8.243184E-1,
                            9.0174764E-2,
                            -4.1931373E-1
                        ],
                        "categories": [],
                        "categories_nodes": [],
                        "categories_segments": [],
                        "categories_sizes": [],
                        "default_left": [
                            1,
                            1,
                            1,
                            0,
                            1,
                            0,
                            0,
                            0,
                            0
                        ],
                        "id": 20,
                        "left_children": [
                            1,
                            3,
                            5,
                            -1,
                            7,
                            -1,
                            -1,
                            -1,
                            -1
                        ],
                        "loss_changes": [
                            1.6408081E1,
                            9.055042E-2,
                            4.8877335E-1,
                            0E0,
                            2.6719615E-1,
                            0E0,
                            0E0,
                            0E0,
                            0E0
                        ],
                        "parents": [
                            2147483647,
                            0,
                            0,
                            1,
                            1,
                            2,
                            2,
                            4,
                            4
                        ],
                        "right_children": [
                            2,
                            4,
                            6,
                            -1,
                            8,
                            -1,
                            -1,
                            -1,
                            -1
                        ],
                        "split_conditions": [
                            4.75E0,
                            1.45E0,
                            1.75E0,
                            -5.9310824E-2,
                            2.95E0,
                            2.2051755E-2,
                            8.2431845E-2,
                            9.017477E-3,
                            -4.1931372E-2
                        ],
                        "split_indices": [
                            2,
                            3,
                            3,
                            0,
                            1,
                            0,
                            0,
                            0,
                            0
                        ],
                        "split_type": [
                            0,
                            0,
                            0,
                            0,
                            0,
                            0,
                            0,
                            0,
                            0
                        ],
                        "sum_hessian": [
                            3.6253582E1,
                            1.8719606E1,
                            1.7533978E1,
                            1.5769146E1,
                            2.9504607E0,
                            2.435802E0,
                            1.5098175E1,
                            1.1574688E0,
                            1.7929919E0
                        ],
                        "tree_param": {
                            "num_deleted": "0",
                            "num_feature": "4",
                            "num_nodes": "9",
                            "size_leaf_vector": "0"
                        }
                    },
                    {
                        "base_weights": [
                            4.404137E-2,
                            7.6160425E-1,
                            -5.8825743E-1
                        ],
                        "categories": [],
                        "categories_nodes": [],
                        "categories_segments": [],
                        "categories_sizes": [],
                        "default_left": [
                            1,
                            0,
                            0
                        ],
                        "id": 21,
                        "left_children": [
                            1,
                            -1,
                            -1
                        ],
                        "loss_changes": [
                            1.6984816E1,
                            0E0,
                            0E0
                        ],
                        "parents": [
                            2147483647,
                            0,
                            0
                        ],
                        "right_children": [
                            2,
                            -1,
                            -1
                        ],
                        "split_conditions": [
                            2.45E0,
                            7.616042E-2,
                            -5.8825742E-2
                        ],
                        "split_indices": [
                            2,
                            0,
                            0
                        ],
                        "split_type": [
                            0,
                            0,
                            0
                        ],
                        "sum_hessian": [
                            3.5447617E1,
                            1.6508492E1,
                            1.8939123E1
                        ],
                        "tree_param": {
                            "num_deleted": "0",
                            "num_feature": "4",
                            "num_nodes": "3",
                            "size_leaf_vector": "0"
                        }
                    },
                    {
                        "base_weights": [
                            -4.0719703E-2,
                            -5.6042445E-1,
                            1.606079E-1,
                            6.2998885E-1,
                            -4.980676E-1,
                            7.202941E-1,
                            -9.4125785E-2,
                            4.3531436E-2,
                            -5.654503E-1
                        ],
                        "categories": [],
                        "categories_nodes": [],
                        "categories_segments": [],
                        "categories_sizes": [],
                        "default_left": [
                            1,
                            0,
                            1,
                            1,
                            1,
                            0,
                            0,
                            0,
                            0
                        ],
                        "id": 22,
                        "left_children": [
                            1,
                            -1,
                            3,
                            5,
                            7,
                            -1,
                            -1,
                            -1,
                            -1
                        ],
                        "loss_changes": [
                            3.9837694E0,
                            0E0,
                            8.847013E0,
                            1.150518E0,
                            4.6411538E-1,
                            0E0,
                            0E0,
                            0E0,
                            0E0
                        ],
                        "parents": [
                            2147483647,
                            0,
                            0,
                            2,
                            2,
                            3,
                            3,
                            4,
                            4
                        ],
                        "right_children": [
                            2,
                            -1,
                            4,
                            6,
                            8,
                            -1,
                            -1,
                            -1,
                            -1
                        ],
                        "split_conditions": [
                            2.45E0,
                            -5.6042444E-2,
                            1.75E0,
                            4.95E0,
                            4.8500004E0,
                            7.202941E-2,
                            -9.412578E-3,
                            4.3531437E-3,
                            -5.654503E-2
                        ],
                        "split_indices": [
                            2,
                            0,
                            3,
                            2,
                            2,
                            0,
                            0,
                            0,
                            0
                        ],
                        "split_type": [
                            0,
                            0,
                            0,
                            0,
                            0,
                            0,
                            0,
                            0,
                            0
                        ],
                        "sum_hessian": [
                            3.6214252E1,
                            9.61376E0,
                            2.660049E1,
                            1.5557535E1,
                            1.1042955E1,
                            1.3837162E1,
                            1.7203739E0,
                            1.2610487E0,
                            9.781907E0
                        ],
                        "tree_param": {
                            "num_deleted": "0",
                            "num_feature": "4",
                            "num_nodes": "9",
                            "size_leaf_vector": "0"
                        }
                    },
                    {
                        "base_weights": [
                            7.213883E-2,
                            -5.8628064E-1,
                            6.779875E-1,
                            2.0962298E-1,
                            7.320053E-1,
                            2.2345386E-1,
                            7.662825E-1
                        ],
                        "categories": [],
                        "categories_nodes": [],
                        "categories_segments": [],
                        "categories_sizes": [],
                        "default_left": [
                            1,
                            0,
                            1,
                            0,
                            1,
                            0,
                            0
                        ],
                        "id": 23,
                        "left_children": [
                            1,
                            -1,
                            3,
                            -1,
                            5,
                            -1,
                            -1
                        ],
                        "loss_changes": [
                            1.5070686E1,
                            0E0,
                            3.4295273E-1,
                            0E0,
                            1.284275E-1,
                            0E0,
                            0E0
                        ],
                        "parents": [
                            2147483647,
                            0,
                            0,
                            2,
                            2,
                            4,
                            4
                        ],
                        "right_children": [
                            2,
                            -1,
                            4,
                            -1,
                            6,
                            -1,
                            -1
                        ],
                        "split_conditions": [
                            4.75E0,
                            -5.8628064E-2,
                            1.75E0,
                            2.0962298E-2,
                            4.8500004E0,
                            2.2345386E-2,
                            7.662825E-2
                        ],
                        "split_indices": [
                            2,
                            0,
                            3,
                            0,
                            2,
                            0,
                            0
                        ],
                        "split_type": [
                            0,
                            0,
                            0,
                            0,
                            0,
                            0,
                            0
                        ],
                        "sum_hessian": [
                            3.578391E1,
                            1.7163448E1,
                            1.8620459E1,
                            2.4301682E0,
                            1.619029E1,
                            1.4971356E0,
                            1.4693155E1
                        ],
                        "tree_param": {
                            "num_deleted": "0",
                            "num_feature": "4",
                            "num_nodes": "7",
                            "size_leaf_vector": "0"
                        }
                    },
                    {
                        "base_weights": [
                            2.1848027E-2,
                            7.212573E-1,
                            -5.757016E-1
                        ],
                        "categories": [],
                        "categories_nodes": [],
                        "categories_segments": [],
                        "categories_sizes": [],
                        "default_left": [
                            1,
                            0,
                            0
                        ],
                        "id": 24,
                        "left_children": [
                            1,
                            -1,
                            -1
                        ],
                        "loss_changes": [
                            1.4540734E1,
                            0E0,
                            0E0
                        ],
                        "parents": [
                            2147483647,
                            0,
                            0
                        ],
                        "right_children": [
                            2,
                            -1,
                            -1
                        ],
                        "split_conditions": [
                            2.45E0,
                            7.212573E-2,
                            -5.757016E-2
                        ],
                        "split_indices": [
                            2,
                            0,
                            0
                        ],
                        "split_type": [
                            0,
                            0,
                            0
                        ],
                        "sum_hessian": [
                            3.279859E1,
                            1.5015956E1,
                            1.7782637E1
                        ],
                        "tree_param": {
                            "num_deleted": "0",
                            "num_feature": "4",
                            "num_nodes": "3",
                            "size_leaf_vector": "0"
                        }
                    },
                    {
                        "base_weights": [
                            -6.633155E-2,
                            -5.513981E-1,
                            1.284501E-1,
                            5.942032E-1,
                            -4.9120995E-1,
                            6.792618E-1,
                            -8.259769E-2,
                            4.159532E-2,
                            -5.558797E-1
                        ],
                        "categories": [],
                        "categories_nodes": [],
                        "categories_segments": [],
                        "categories_sizes": [],
                        "default_left": [
                            1,
                            0,
                            1,
                            1,
                            1,
                            0,
                            0,
                            0,
                            0
                        ],
                        "id": 25,
                        "left_children": [
                            1,
                            -1,
                            3,
                            5,
                            7,
                            -1,
                            -1,
                            -1,
                            -1
                        ],
                        "loss_changes": [
                            3.5979674E0,
                            0E0,
                            8.213225E0,
                            9.8420143E-1,
                            4.4779277E-1,
                            0E0,
                            0E0,
                            0E0,
                            0E0
                        ],
                        "parents": [
                            2147483647,
                            0,
                            0,
                            2,
                            2,
                            3,
                            3,
                            4,
                            4
                        ],
                        "right_children": [
                            2,
                            -1,
                            4,
                            6,
                            8,
                            -1,
                            -1,
                            -1,
                            -1
                        ],
                        "split_conditions": [
                            2.45E0,
                            -5.513981E-2,
                            1.75E0,
                            4.95E0,
                            4.8500004E0,
                            6.792618E-2,
                            -8.259769E-3,
                            4.159532E-3,
                            -5.5587973E-2
                        ],
                        "split_indices": [
                            2,
                            0,
                            3,
                            2,
                            2,
                            0,
                            0,
                            0,
                            0
                        ],
                        "split_type": [
                            0,
                            0,
                            0,
                            0,
                            0,
                            0,
                            0,
                            0,
                            0
                        ],
                        "sum_hessian": [
                            3.633132E1,
                            9.884645E0,
                            2.6446678E1,
                            1.5121806E1,
                            1.1324872E1,
                            1.3430285E1,
                            1.6915202E0,
                            1.2644067E0,
                            1.0060465E1
                        ],
                        "tree_param": {
                            "num_deleted": "0",
                            "num_feature": "4",
                            "num_nodes": "9",
                            "size_leaf_vector": "0"
                        }
                    },
                    {
                        "base_weights": [
                            9.548785E-2,
                            -5.131869E-1,
                            6.095638E-1,
                            -8.5789114E-2,
                            -5.651596E-1,
                            2.3792796E-1,
                            7.336262E-1,
                            -2.0975952E-1,
                            4.76237E-1
                        ],
                        "categories": [],
                        "categories_nodes": [],
                        "categories_segments": [],
                        "categories_sizes": [],
                        "default_left": [
                            1,
                            1,
                            1,
                            0,
                            0,
                            1,
                            0,
                            0,
                            0
                        ],
                        "id": 26,
                        "left_children": [
                            1,
                            3,
                            5,
                            -1,
                            -1,
                            7,
                            -1,
                            -1,
                            -1
                        ],
                        "loss_changes": [
                            1.1090672E1,
                            3.1390095E-1,
                            7.0747614E-1,
                            0E0,
                            0E0,
                            7.6860505E-1,
                            0E0,
                            0E0,
                            0E0
                        ],
                        "parents": [
                            2147483647,
                            0,
                            0,
                            1,
                            1,
                            2,
                            2,
                            5,
                            5
                        ],
